digraph Tree {
node [shape=box, fontname="helvetica"] ;
edge [fontname="helvetica"] ;
0 [label="Overall Qual <= 0.274\ngini = 0.75\nsamples = 1963\nvalue = [499, 477, 504, 483]"] ;
1 [label="Garage Cars <= -0.358\ngini = 0.672\nsamples = 1219\nvalue = [41, 469, 269, 440]"] ;
0 -> 1 [labeldistance=2.5, labelangle=45, headlabel="True"] ;
2 [label="Total Bsmt SF <= -0.183\ngini = 0.518\nsamples = 590\nvalue = [2, 353, 29, 206]"] ;
1 -> 2 ;
3 [label="Gr Liv Area <= -0.224\ngini = 0.397\nsamples = 386\nvalue = [0, 286, 11, 89]"] ;
2 -> 3 ;
4 [label="BsmtFin SF 1 <= -0.966\ngini = 0.272\nsamples = 308\nvalue = [0, 258, 0, 50]"] ;
3 -> 4 ;
5 [label="Wood Deck SF <= 0.764\ngini = 0.017\nsamples = 116\nvalue = [0, 115, 0, 1]"] ;
4 -> 5 ;
6 [label="gini = 0.0\nsamples = 107\nvalue = [0, 107, 0, 0]"] ;
5 -> 6 ;
7 [label="Fireplaces <= -0.157\ngini = 0.198\nsamples = 9\nvalue = [0, 8, 0, 1]"] ;
5 -> 7 ;
8 [label="gini = 0.0\nsamples = 8\nvalue = [0, 8, 0, 0]"] ;
7 -> 8 ;
9 [label="gini = 0.0\nsamples = 1\nvalue = [0, 0, 0, 1]"] ;
7 -> 9 ;
10 [label="Lot Area <= -0.117\ngini = 0.38\nsamples = 192\nvalue = [0, 143, 0, 49]"] ;
4 -> 10 ;
11 [label="Lot Area <= -0.516\ngini = 0.282\nsamples = 141\nvalue = [0, 117, 0, 24]"] ;
10 -> 11 ;
12 [label="gini = 0.0\nsamples = 41\nvalue = [0, 41, 0, 0]"] ;
11 -> 12 ;
13 [label="BsmtFin SF 2 <= 2.493\ngini = 0.365\nsamples = 100\nvalue = [0, 76, 0, 24]"] ;
11 -> 13 ;
14 [label="Overall Cond <= 1.739\ngini = 0.33\nsamples = 96\nvalue = [0, 76, 0, 20]"] ;
13 -> 14 ;
15 [label="Screen Porch <= 2.089\ngini = 0.264\nsamples = 83\nvalue = [0, 70, 0, 13]"] ;
14 -> 15 ;
16 [label="gini = 0.237\nsamples = 80\nvalue = [0, 69, 0, 11]"] ;
15 -> 16 ;
17 [label="gini = 0.444\nsamples = 3\nvalue = [0, 1, 0, 2]"] ;
15 -> 17 ;
18 [label="Wood Deck SF <= 0.54\ngini = 0.497\nsamples = 13\nvalue = [0, 6, 0, 7]"] ;
14 -> 18 ;
19 [label="gini = 0.444\nsamples = 9\nvalue = [0, 6, 0, 3]"] ;
18 -> 19 ;
20 [label="gini = 0.0\nsamples = 4\nvalue = [0, 0, 0, 4]"] ;
18 -> 20 ;
21 [label="gini = 0.0\nsamples = 4\nvalue = [0, 0, 0, 4]"] ;
13 -> 21 ;
22 [label="Overall Cond <= 0.837\ngini = 0.5\nsamples = 51\nvalue = [0, 26, 0, 25]"] ;
10 -> 22 ;
23 [label="Wood Deck SF <= 0.392\ngini = 0.444\nsamples = 33\nvalue = [0, 22, 0, 11]"] ;
22 -> 23 ;
24 [label="BsmtFin SF 1 <= -0.568\ngini = 0.346\nsamples = 27\nvalue = [0, 21, 0, 6]"] ;
23 -> 24 ;
25 [label="gini = 0.0\nsamples = 2\nvalue = [0, 0, 0, 2]"] ;
24 -> 25 ;
26 [label="Total Bsmt SF <= -1.058\ngini = 0.269\nsamples = 25\nvalue = [0, 21, 0, 4]"] ;
24 -> 26 ;
27 [label="gini = 0.0\nsamples = 1\nvalue = [0, 0, 0, 1]"] ;
26 -> 27 ;
28 [label="gini = 0.219\nsamples = 24\nvalue = [0, 21, 0, 3]"] ;
26 -> 28 ;
29 [label="Garage Area <= -1.599\ngini = 0.278\nsamples = 6\nvalue = [0, 1, 0, 5]"] ;
23 -> 29 ;
30 [label="gini = 0.0\nsamples = 1\nvalue = [0, 1, 0, 0]"] ;
29 -> 30 ;
31 [label="gini = 0.0\nsamples = 5\nvalue = [0, 0, 0, 5]"] ;
29 -> 31 ;
32 [label="Gr Liv Area <= -1.147\ngini = 0.346\nsamples = 18\nvalue = [0, 4, 0, 14]"] ;
22 -> 32 ;
33 [label="Gr Liv Area <= -1.315\ngini = 0.375\nsamples = 4\nvalue = [0, 3, 0, 1]"] ;
32 -> 33 ;
34 [label="gini = 0.0\nsamples = 1\nvalue = [0, 0, 0, 1]"] ;
33 -> 34 ;
35 [label="gini = 0.0\nsamples = 3\nvalue = [0, 3, 0, 0]"] ;
33 -> 35 ;
36 [label="Garage Cars <= -1.673\ngini = 0.133\nsamples = 14\nvalue = [0, 1, 0, 13]"] ;
32 -> 36 ;
37 [label="gini = 0.0\nsamples = 1\nvalue = [0, 1, 0, 0]"] ;
36 -> 37 ;
38 [label="gini = 0.0\nsamples = 13\nvalue = [0, 0, 0, 13]"] ;
36 -> 38 ;
39 [label="Overall Cond <= -0.967\ngini = 0.601\nsamples = 78\nvalue = [0, 28, 11, 39]"] ;
3 -> 39 ;
40 [label="gini = 0.0\nsamples = 9\nvalue = [0, 9, 0, 0]"] ;
39 -> 40 ;
41 [label="Gr Liv Area <= 0.524\ngini = 0.579\nsamples = 69\nvalue = [0, 19, 11, 39]"] ;
39 -> 41 ;
42 [label="Garage Area <= -1.213\ngini = 0.494\nsamples = 58\nvalue = [0, 18, 3, 37]"] ;
41 -> 42 ;
43 [label="2nd Flr SF <= 1.007\ngini = 0.554\nsamples = 19\nvalue = [0, 11, 2, 6]"] ;
42 -> 43 ;
44 [label="Screen Porch <= 0.179\ngini = 0.477\nsamples = 16\nvalue = [0, 11, 2, 3]"] ;
43 -> 44 ;
45 [label="3Ssn Porch <= 2.65\ngini = 0.337\nsamples = 14\nvalue = [0, 11, 0, 3]"] ;
44 -> 45 ;
46 [label="gini = 0.153\nsamples = 12\nvalue = [0, 11, 0, 1]"] ;
45 -> 46 ;
47 [label="gini = 0.0\nsamples = 2\nvalue = [0, 0, 0, 2]"] ;
45 -> 47 ;
48 [label="gini = 0.0\nsamples = 2\nvalue = [0, 0, 2, 0]"] ;
44 -> 48 ;
49 [label="gini = 0.0\nsamples = 3\nvalue = [0, 0, 0, 3]"] ;
43 -> 49 ;
50 [label="Lot Area <= 0.636\ngini = 0.335\nsamples = 39\nvalue = [0, 7, 1, 31]"] ;
42 -> 50 ;
51 [label="Lot Area <= -0.5\ngini = 0.272\nsamples = 37\nvalue = [0, 6, 0, 31]"] ;
50 -> 51 ;
52 [label="Lot Area <= -0.589\ngini = 0.5\nsamples = 8\nvalue = [0, 4, 0, 4]"] ;
51 -> 52 ;
53 [label="gini = 0.32\nsamples = 5\nvalue = [0, 1, 0, 4]"] ;
52 -> 53 ;
54 [label="gini = 0.0\nsamples = 3\nvalue = [0, 3, 0, 0]"] ;
52 -> 54 ;
55 [label="2nd Flr SF <= 1.045\ngini = 0.128\nsamples = 29\nvalue = [0, 2, 0, 27]"] ;
51 -> 55 ;
56 [label="gini = 0.069\nsamples = 28\nvalue = [0, 1, 0, 27]"] ;
55 -> 56 ;
57 [label="gini = 0.0\nsamples = 1\nvalue = [0, 1, 0, 0]"] ;
55 -> 57 ;
58 [label="2nd Flr SF <= 0.581\ngini = 0.5\nsamples = 2\nvalue = [0, 1, 1, 0]"] ;
50 -> 58 ;
59 [label="gini = 0.0\nsamples = 1\nvalue = [0, 1, 0, 0]"] ;
58 -> 59 ;
60 [label="gini = 0.0\nsamples = 1\nvalue = [0, 0, 1, 0]"] ;
58 -> 60 ;
61 [label="Half Bath <= 2.238\ngini = 0.43\nsamples = 11\nvalue = [0, 1, 8, 2]"] ;
41 -> 61 ;
62 [label="Lot Area <= -0.452\ngini = 0.198\nsamples = 9\nvalue = [0, 1, 8, 0]"] ;
61 -> 62 ;
63 [label="gini = 0.0\nsamples = 1\nvalue = [0, 1, 0, 0]"] ;
62 -> 63 ;
64 [label="gini = 0.0\nsamples = 8\nvalue = [0, 0, 8, 0]"] ;
62 -> 64 ;
65 [label="gini = 0.0\nsamples = 2\nvalue = [0, 0, 0, 2]"] ;
61 -> 65 ;
66 [label="1st Flr SF <= -0.175\ngini = 0.555\nsamples = 204\nvalue = [2, 67, 18, 117]"] ;
2 -> 66 ;
67 [label="Bsmt Unf SF <= 0.053\ngini = 0.52\nsamples = 86\nvalue = [0, 45, 2, 39]"] ;
66 -> 67 ;
68 [label="Garage Area <= -1.176\ngini = 0.508\nsamples = 61\nvalue = [0, 23, 2, 36]"] ;
67 -> 68 ;
69 [label="gini = 0.0\nsamples = 5\nvalue = [0, 5, 0, 0]"] ;
68 -> 69 ;
70 [label="2nd Flr SF <= 0.744\ngini = 0.482\nsamples = 56\nvalue = [0, 18, 2, 36]"] ;
68 -> 70 ;
71 [label="Overall Cond <= 0.837\ngini = 0.444\nsamples = 54\nvalue = [0, 18, 0, 36]"] ;
70 -> 71 ;
72 [label="Gr Liv Area <= -0.852\ngini = 0.492\nsamples = 39\nvalue = [0, 17, 0, 22]"] ;
71 -> 72 ;
73 [label="Lot Area <= -0.37\ngini = 0.498\nsamples = 30\nvalue = [0, 16, 0, 14]"] ;
72 -> 73 ;
74 [label="gini = 0.0\nsamples = 3\nvalue = [0, 0, 0, 3]"] ;
73 -> 74 ;
75 [label="gini = 0.483\nsamples = 27\nvalue = [0, 16, 0, 11]"] ;
73 -> 75 ;
76 [label="Screen Porch <= 2.204\ngini = 0.198\nsamples = 9\nvalue = [0, 1, 0, 8]"] ;
72 -> 76 ;
77 [label="gini = 0.0\nsamples = 8\nvalue = [0, 0, 0, 8]"] ;
76 -> 77 ;
78 [label="gini = 0.0\nsamples = 1\nvalue = [0, 1, 0, 0]"] ;
76 -> 78 ;
79 [label="Mo Sold <= -1.563\ngini = 0.124\nsamples = 15\nvalue = [0, 1, 0, 14]"] ;
71 -> 79 ;
80 [label="gini = 0.0\nsamples = 1\nvalue = [0, 1, 0, 0]"] ;
79 -> 80 ;
81 [label="gini = 0.0\nsamples = 14\nvalue = [0, 0, 0, 14]"] ;
79 -> 81 ;
82 [label="gini = 0.0\nsamples = 2\nvalue = [0, 0, 2, 0]"] ;
70 -> 82 ;
83 [label="Overall Cond <= 1.739\ngini = 0.211\nsamples = 25\nvalue = [0, 22, 0, 3]"] ;
67 -> 83 ;
84 [label="Wood Deck SF <= 0.075\ngini = 0.083\nsamples = 23\nvalue = [0, 22, 0, 1]"] ;
83 -> 84 ;
85 [label="gini = 0.0\nsamples = 21\nvalue = [0, 21, 0, 0]"] ;
84 -> 85 ;
86 [label="Wood Deck SF <= 1.124\ngini = 0.5\nsamples = 2\nvalue = [0, 1, 0, 1]"] ;
84 -> 86 ;
87 [label="gini = 0.0\nsamples = 1\nvalue = [0, 0, 0, 1]"] ;
86 -> 87 ;
88 [label="gini = 0.0\nsamples = 1\nvalue = [0, 1, 0, 0]"] ;
86 -> 88 ;
89 [label="gini = 0.0\nsamples = 2\nvalue = [0, 0, 0, 2]"] ;
83 -> 89 ;
90 [label="Mo Sold <= 1.631\ngini = 0.51\nsamples = 118\nvalue = [2, 22, 16, 78]"] ;
66 -> 90 ;
91 [label="Full Bath <= 1.668\ngini = 0.46\nsamples = 109\nvalue = [2, 19, 11, 77]"] ;
90 -> 91 ;
92 [label="Lot Area <= -0.404\ngini = 0.434\nsamples = 106\nvalue = [2, 19, 8, 77]"] ;
91 -> 92 ;
93 [label="Enclosed Porch <= 1.435\ngini = 0.32\nsamples = 5\nvalue = [0, 4, 0, 1]"] ;
92 -> 93 ;
94 [label="gini = 0.0\nsamples = 4\nvalue = [0, 4, 0, 0]"] ;
93 -> 94 ;
95 [label="gini = 0.0\nsamples = 1\nvalue = [0, 0, 0, 1]"] ;
93 -> 95 ;
96 [label="Bedroom AbvGr <= 0.807\ngini = 0.405\nsamples = 101\nvalue = [2, 15, 8, 76]"] ;
92 -> 96 ;
97 [label="Lot Frontage <= 1.122\ngini = 0.329\nsamples = 84\nvalue = [1, 8, 7, 68]"] ;
96 -> 97 ;
98 [label="Misc Val <= 1.201\ngini = 0.286\nsamples = 80\nvalue = [1, 8, 4, 67]"] ;
97 -> 98 ;
99 [label="gini = 0.252\nsamples = 78\nvalue = [1, 7, 3, 67]"] ;
98 -> 99 ;
100 [label="gini = 0.5\nsamples = 2\nvalue = [0, 1, 1, 0]"] ;
98 -> 100 ;
101 [label="Mas Vnr Area <= 0.459\ngini = 0.375\nsamples = 4\nvalue = [0, 0, 3, 1]"] ;
97 -> 101 ;
102 [label="gini = 0.0\nsamples = 3\nvalue = [0, 0, 3, 0]"] ;
101 -> 102 ;
103 [label="gini = 0.0\nsamples = 1\nvalue = [0, 0, 0, 1]"] ;
101 -> 103 ;
104 [label="Gr Liv Area <= 0.512\ngini = 0.602\nsamples = 17\nvalue = [1, 7, 1, 8]"] ;
96 -> 104 ;
105 [label="Mas Vnr Area <= 0.249\ngini = 0.42\nsamples = 10\nvalue = [0, 7, 0, 3]"] ;
104 -> 105 ;
106 [label="gini = 0.219\nsamples = 8\nvalue = [0, 7, 0, 1]"] ;
105 -> 106 ;
107 [label="gini = 0.0\nsamples = 2\nvalue = [0, 0, 0, 2]"] ;
105 -> 107 ;
108 [label="Garage Area <= -0.656\ngini = 0.449\nsamples = 7\nvalue = [1, 0, 1, 5]"] ;
104 -> 108 ;
109 [label="gini = 0.0\nsamples = 5\nvalue = [0, 0, 0, 5]"] ;
108 -> 109 ;
110 [label="gini = 0.5\nsamples = 2\nvalue = [1, 0, 1, 0]"] ;
108 -> 110 ;
111 [label="gini = 0.0\nsamples = 3\nvalue = [0, 0, 3, 0]"] ;
91 -> 111 ;
112 [label="Garage Area <= -0.637\ngini = 0.568\nsamples = 9\nvalue = [0, 3, 5, 1]"] ;
90 -> 112 ;
113 [label="Gr Liv Area <= -0.415\ngini = 0.278\nsamples = 6\nvalue = [0, 0, 5, 1]"] ;
112 -> 113 ;
114 [label="gini = 0.0\nsamples = 1\nvalue = [0, 0, 0, 1]"] ;
113 -> 114 ;
115 [label="gini = 0.0\nsamples = 5\nvalue = [0, 0, 5, 0]"] ;
113 -> 115 ;
116 [label="gini = 0.0\nsamples = 3\nvalue = [0, 3, 0, 0]"] ;
112 -> 116 ;
117 [label="Overall Qual <= -0.429\ngini = 0.678\nsamples = 629\nvalue = [39, 116, 240, 234]"] ;
1 -> 117 ;
118 [label="Overall Qual <= -1.132\ngini = 0.634\nsamples = 285\nvalue = [8, 100, 44, 133]"] ;
117 -> 118 ;
119 [label="Fireplaces <= -0.157\ngini = 0.377\nsamples = 60\nvalue = [1, 46, 2, 11]"] ;
118 -> 119 ;
120 [label="Bsmt Unf SF <= 1.093\ngini = 0.222\nsamples = 49\nvalue = [0, 43, 2, 4]"] ;
119 -> 120 ;
121 [label="Lot Frontage <= 2.319\ngini = 0.159\nsamples = 47\nvalue = [0, 43, 2, 2]"] ;
120 -> 121 ;
122 [label="Enclosed Porch <= 2.43\ngini = 0.086\nsamples = 45\nvalue = [0, 43, 1, 1]"] ;
121 -> 122 ;
123 [label="Wood Deck SF <= 1.132\ngini = 0.044\nsamples = 44\nvalue = [0, 43, 1, 0]"] ;
122 -> 123 ;
124 [label="gini = 0.0\nsamples = 41\nvalue = [0, 41, 0, 0]"] ;
123 -> 124 ;
125 [label="Half Bath <= 0.241\ngini = 0.444\nsamples = 3\nvalue = [0, 2, 1, 0]"] ;
123 -> 125 ;
126 [label="gini = 0.0\nsamples = 2\nvalue = [0, 2, 0, 0]"] ;
125 -> 126 ;
127 [label="gini = 0.0\nsamples = 1\nvalue = [0, 0, 1, 0]"] ;
125 -> 127 ;
128 [label="gini = 0.0\nsamples = 1\nvalue = [0, 0, 0, 1]"] ;
122 -> 128 ;
129 [label="Lot Frontage <= 3.517\ngini = 0.5\nsamples = 2\nvalue = [0, 0, 1, 1]"] ;
121 -> 129 ;
130 [label="gini = 0.0\nsamples = 1\nvalue = [0, 0, 1, 0]"] ;
129 -> 130 ;
131 [label="gini = 0.0\nsamples = 1\nvalue = [0, 0, 0, 1]"] ;
129 -> 131 ;
132 [label="gini = 0.0\nsamples = 2\nvalue = [0, 0, 0, 2]"] ;
120 -> 132 ;
133 [label="Lot Area <= -0.072\ngini = 0.512\nsamples = 11\nvalue = [1, 3, 0, 7]"] ;
119 -> 133 ;
134 [label="gini = 0.0\nsamples = 5\nvalue = [0, 0, 0, 5]"] ;
133 -> 134 ;
135 [label="Total Bsmt SF <= -1.656\ngini = 0.611\nsamples = 6\nvalue = [1, 3, 0, 2]"] ;
133 -> 135 ;
136 [label="gini = 0.0\nsamples = 2\nvalue = [0, 0, 0, 2]"] ;
135 -> 136 ;
137 [label="Total Bsmt SF <= 0.744\ngini = 0.375\nsamples = 4\nvalue = [1, 3, 0, 0]"] ;
135 -> 137 ;
138 [label="gini = 0.0\nsamples = 3\nvalue = [0, 3, 0, 0]"] ;
137 -> 138 ;
139 [label="gini = 0.0\nsamples = 1\nvalue = [1, 0, 0, 0]"] ;
137 -> 139 ;
140 [label="BsmtFin SF 1 <= -0.685\ngini = 0.613\nsamples = 225\nvalue = [7, 54, 42, 122]"] ;
118 -> 140 ;
141 [label="Bsmt Unf SF <= 1.212\ngini = 0.615\nsamples = 72\nvalue = [0, 35, 12, 25]"] ;
140 -> 141 ;
142 [label="Wood Deck SF <= -0.053\ngini = 0.582\nsamples = 56\nvalue = [0, 32, 12, 12]"] ;
141 -> 142 ;
143 [label="Fireplaces <= -0.157\ngini = 0.448\nsamples = 42\nvalue = [0, 30, 5, 7]"] ;
142 -> 143 ;
144 [label="Enclosed Porch <= 2.06\ngini = 0.283\nsamples = 31\nvalue = [0, 26, 2, 3]"] ;
143 -> 144 ;
145 [label="Full Bath <= 1.668\ngini = 0.238\nsamples = 30\nvalue = [0, 26, 1, 3]"] ;
144 -> 145 ;
146 [label="gini = 0.185\nsamples = 29\nvalue = [0, 26, 0, 3]"] ;
145 -> 146 ;
147 [label="gini = 0.0\nsamples = 1\nvalue = [0, 0, 1, 0]"] ;
145 -> 147 ;
148 [label="gini = 0.0\nsamples = 1\nvalue = [0, 0, 1, 0]"] ;
144 -> 148 ;
149 [label="Total Bsmt SF <= -0.06\ngini = 0.661\nsamples = 11\nvalue = [0, 4, 3, 4]"] ;
143 -> 149 ;
150 [label="Gr Liv Area <= -0.202\ngini = 0.5\nsamples = 8\nvalue = [0, 4, 0, 4]"] ;
149 -> 150 ;
151 [label="gini = 0.0\nsamples = 3\nvalue = [0, 3, 0, 0]"] ;
150 -> 151 ;
152 [label="gini = 0.32\nsamples = 5\nvalue = [0, 1, 0, 4]"] ;
150 -> 152 ;
153 [label="gini = 0.0\nsamples = 3\nvalue = [0, 0, 3, 0]"] ;
149 -> 153 ;
154 [label="Lot Area <= -0.058\ngini = 0.602\nsamples = 14\nvalue = [0, 2, 7, 5]"] ;
142 -> 154 ;
155 [label="1st Flr SF <= -0.97\ngini = 0.444\nsamples = 6\nvalue = [0, 2, 0, 4]"] ;
154 -> 155 ;
156 [label="gini = 0.0\nsamples = 3\nvalue = [0, 0, 0, 3]"] ;
155 -> 156 ;
157 [label="Total Bsmt SF <= -0.427\ngini = 0.444\nsamples = 3\nvalue = [0, 2, 0, 1]"] ;
155 -> 157 ;
158 [label="gini = 0.0\nsamples = 2\nvalue = [0, 2, 0, 0]"] ;
157 -> 158 ;
159 [label="gini = 0.0\nsamples = 1\nvalue = [0, 0, 0, 1]"] ;
157 -> 159 ;
160 [label="Gr Liv Area <= -1.087\ngini = 0.219\nsamples = 8\nvalue = [0, 0, 7, 1]"] ;
154 -> 160 ;
161 [label="gini = 0.0\nsamples = 1\nvalue = [0, 0, 0, 1]"] ;
160 -> 161 ;
162 [label="gini = 0.0\nsamples = 7\nvalue = [0, 0, 7, 0]"] ;
160 -> 162 ;
163 [label="Garage Cars <= 0.957\ngini = 0.305\nsamples = 16\nvalue = [0, 3, 0, 13]"] ;
141 -> 163 ;
164 [label="Overall Cond <= -1.869\ngini = 0.133\nsamples = 14\nvalue = [0, 1, 0, 13]"] ;
163 -> 164 ;
165 [label="Gr Liv Area <= 0.748\ngini = 0.5\nsamples = 2\nvalue = [0, 1, 0, 1]"] ;
164 -> 165 ;
166 [label="gini = 0.0\nsamples = 1\nvalue = [0, 1, 0, 0]"] ;
165 -> 166 ;
167 [label="gini = 0.0\nsamples = 1\nvalue = [0, 0, 0, 1]"] ;
165 -> 167 ;
168 [label="gini = 0.0\nsamples = 12\nvalue = [0, 0, 0, 12]"] ;
164 -> 168 ;
169 [label="gini = 0.0\nsamples = 2\nvalue = [0, 2, 0, 0]"] ;
163 -> 169 ;
170 [label="Gr Liv Area <= -0.262\ngini = 0.542\nsamples = 153\nvalue = [7, 19, 30, 97]"] ;
140 -> 170 ;
171 [label="Mo Sold <= -1.751\ngini = 0.378\nsamples = 97\nvalue = [1, 12, 9, 75]"] ;
170 -> 171 ;
172 [label="Bsmt Unf SF <= -0.411\ngini = 0.375\nsamples = 4\nvalue = [0, 3, 0, 1]"] ;
171 -> 172 ;
173 [label="gini = 0.0\nsamples = 3\nvalue = [0, 3, 0, 0]"] ;
172 -> 173 ;
174 [label="gini = 0.0\nsamples = 1\nvalue = [0, 0, 0, 1]"] ;
172 -> 174 ;
175 [label="Enclosed Porch <= -0.004\ngini = 0.348\nsamples = 93\nvalue = [1, 9, 9, 74]"] ;
171 -> 175 ;
176 [label="Full Bath <= -0.124\ngini = 0.326\nsamples = 90\nvalue = [1, 9, 7, 73]"] ;
175 -> 176 ;
177 [label="Lot Area <= -0.338\ngini = 0.28\nsamples = 81\nvalue = [0, 9, 4, 68]"] ;
176 -> 177 ;
178 [label="gini = 0.444\nsamples = 15\nvalue = [0, 5, 0, 10]"] ;
177 -> 178 ;
179 [label="gini = 0.22\nsamples = 66\nvalue = [0, 4, 4, 58]"] ;
177 -> 179 ;
180 [label="Fireplaces <= -0.157\ngini = 0.568\nsamples = 9\nvalue = [1, 0, 3, 5]"] ;
176 -> 180 ;
181 [label="gini = 0.0\nsamples = 4\nvalue = [0, 0, 0, 4]"] ;
180 -> 181 ;
182 [label="gini = 0.56\nsamples = 5\nvalue = [1, 0, 3, 1]"] ;
180 -> 182 ;
183 [label="Total Bsmt SF <= 0.301\ngini = 0.444\nsamples = 3\nvalue = [0, 0, 2, 1]"] ;
175 -> 183 ;
184 [label="gini = 0.0\nsamples = 2\nvalue = [0, 0, 2, 0]"] ;
183 -> 184 ;
185 [label="gini = 0.0\nsamples = 1\nvalue = [0, 0, 0, 1]"] ;
183 -> 185 ;
186 [label="BsmtFin SF 1 <= 0.319\ngini = 0.678\nsamples = 56\nvalue = [6, 7, 21, 22]"] ;
170 -> 186 ;
187 [label="Gr Liv Area <= -0.223\ngini = 0.574\nsamples = 32\nvalue = [1, 5, 7, 19]"] ;
186 -> 187 ;
188 [label="gini = 0.0\nsamples = 3\nvalue = [0, 3, 0, 0]"] ;
187 -> 188 ;
189 [label="Bsmt Unf SF <= -0.882\ngini = 0.507\nsamples = 29\nvalue = [1, 2, 7, 19]"] ;
187 -> 189 ;
190 [label="Lot Frontage <= -0.823\ngini = 0.568\nsamples = 9\nvalue = [0, 1, 5, 3]"] ;
189 -> 190 ;
191 [label="gini = 0.0\nsamples = 3\nvalue = [0, 0, 3, 0]"] ;
190 -> 191 ;
192 [label="gini = 0.611\nsamples = 6\nvalue = [0, 1, 2, 3]"] ;
190 -> 192 ;
193 [label="Mas Vnr Area <= 1.678\ngini = 0.345\nsamples = 20\nvalue = [1, 1, 2, 16]"] ;
189 -> 193 ;
194 [label="gini = 0.277\nsamples = 19\nvalue = [0, 1, 2, 16]"] ;
193 -> 194 ;
195 [label="gini = 0.0\nsamples = 1\nvalue = [1, 0, 0, 0]"] ;
193 -> 195 ;
196 [label="Mo Sold <= 0.879\ngini = 0.594\nsamples = 24\nvalue = [5, 2, 14, 3]"] ;
186 -> 196 ;
197 [label="BsmtFin SF 1 <= 1.385\ngini = 0.494\nsamples = 21\nvalue = [5, 1, 14, 1]"] ;
196 -> 197 ;
198 [label="1st Flr SF <= -0.606\ngini = 0.292\nsamples = 12\nvalue = [0, 1, 10, 1]"] ;
197 -> 198 ;
199 [label="gini = 0.0\nsamples = 1\nvalue = [0, 1, 0, 0]"] ;
198 -> 199 ;
200 [label="gini = 0.165\nsamples = 11\nvalue = [0, 0, 10, 1]"] ;
198 -> 200 ;
201 [label="Overall Cond <= -0.065\ngini = 0.494\nsamples = 9\nvalue = [5, 0, 4, 0]"] ;
197 -> 201 ;
202 [label="gini = 0.32\nsamples = 5\nvalue = [1, 0, 4, 0]"] ;
201 -> 202 ;
203 [label="gini = 0.0\nsamples = 4\nvalue = [4, 0, 0, 0]"] ;
201 -> 203 ;
204 [label="Low Qual Fin SF <= 1.459\ngini = 0.444\nsamples = 3\nvalue = [0, 1, 0, 2]"] ;
196 -> 204 ;
205 [label="gini = 0.0\nsamples = 2\nvalue = [0, 0, 0, 2]"] ;
204 -> 205 ;
206 [label="gini = 0.0\nsamples = 1\nvalue = [0, 1, 0, 0]"] ;
204 -> 206 ;
207 [label="Gr Liv Area <= -0.669\ngini = 0.579\nsamples = 344\nvalue = [31, 16, 196, 101]"] ;
117 -> 207 ;
208 [label="1st Flr SF <= -0.928\ngini = 0.365\nsamples = 55\nvalue = [0, 6, 6, 43]"] ;
207 -> 208 ;
209 [label="gini = 0.0\nsamples = 4\nvalue = [0, 4, 0, 0]"] ;
208 -> 209 ;
210 [label="Garage Area <= 0.601\ngini = 0.274\nsamples = 51\nvalue = [0, 2, 6, 43]"] ;
208 -> 210 ;
211 [label="Garage Area <= -0.504\ngini = 0.19\nsamples = 48\nvalue = [0, 1, 4, 43]"] ;
210 -> 211 ;
212 [label="gini = 0.0\nsamples = 1\nvalue = [0, 1, 0, 0]"] ;
211 -> 212 ;
213 [label="Enclosed Porch <= 2.052\ngini = 0.156\nsamples = 47\nvalue = [0, 0, 4, 43]"] ;
211 -> 213 ;
214 [label="Total Bsmt SF <= 0.108\ngini = 0.122\nsamples = 46\nvalue = [0, 0, 3, 43]"] ;
213 -> 214 ;
215 [label="gini = 0.0\nsamples = 38\nvalue = [0, 0, 0, 38]"] ;
214 -> 215 ;
216 [label="Mas Vnr Area <= -0.219\ngini = 0.469\nsamples = 8\nvalue = [0, 0, 3, 5]"] ;
214 -> 216 ;
217 [label="gini = 0.0\nsamples = 4\nvalue = [0, 0, 0, 4]"] ;
216 -> 217 ;
218 [label="gini = 0.375\nsamples = 4\nvalue = [0, 0, 3, 1]"] ;
216 -> 218 ;
219 [label="gini = 0.0\nsamples = 1\nvalue = [0, 0, 1, 0]"] ;
213 -> 219 ;
220 [label="BsmtFin SF 2 <= 0.074\ngini = 0.444\nsamples = 3\nvalue = [0, 1, 2, 0]"] ;
210 -> 220 ;
221 [label="gini = 0.0\nsamples = 2\nvalue = [0, 0, 2, 0]"] ;
220 -> 221 ;
222 [label="gini = 0.0\nsamples = 1\nvalue = [0, 1, 0, 0]"] ;
220 -> 222 ;
223 [label="Gr Liv Area <= 0.784\ngini = 0.515\nsamples = 289\nvalue = [31, 10, 190, 58]"] ;
207 -> 223 ;
224 [label="Open Porch SF <= -0.558\ngini = 0.461\nsamples = 255\nvalue = [13, 8, 178, 56]"] ;
223 -> 224 ;
225 [label="Lot Area <= -0.134\ngini = 0.593\nsamples = 88\nvalue = [3, 7, 44, 34]"] ;
224 -> 225 ;
226 [label="Total Bsmt SF <= -1.022\ngini = 0.487\nsamples = 31\nvalue = [0, 6, 4, 21]"] ;
225 -> 226 ;
227 [label="Mo Sold <= 1.067\ngini = 0.5\nsamples = 6\nvalue = [0, 4, 1, 1]"] ;
226 -> 227 ;
228 [label="Overall Cond <= -0.065\ngini = 0.32\nsamples = 5\nvalue = [0, 4, 1, 0]"] ;
227 -> 228 ;
229 [label="gini = 0.0\nsamples = 1\nvalue = [0, 0, 1, 0]"] ;
228 -> 229 ;
230 [label="gini = 0.0\nsamples = 4\nvalue = [0, 4, 0, 0]"] ;
228 -> 230 ;
231 [label="gini = 0.0\nsamples = 1\nvalue = [0, 0, 0, 1]"] ;
227 -> 231 ;
232 [label="Lot Frontage <= -1.362\ngini = 0.339\nsamples = 25\nvalue = [0, 2, 3, 20]"] ;
226 -> 232 ;
233 [label="gini = 0.0\nsamples = 2\nvalue = [0, 0, 2, 0]"] ;
232 -> 233 ;
234 [label="Bsmt Unf SF <= 1.229\ngini = 0.234\nsamples = 23\nvalue = [0, 2, 1, 20]"] ;
232 -> 234 ;
235 [label="gini = 0.091\nsamples = 21\nvalue = [0, 1, 0, 20]"] ;
234 -> 235 ;
236 [label="gini = 0.5\nsamples = 2\nvalue = [0, 1, 1, 0]"] ;
234 -> 236 ;
237 [label="Total Bsmt SF <= -0.848\ngini = 0.452\nsamples = 57\nvalue = [3, 1, 40, 13]"] ;
225 -> 237 ;
238 [label="gini = 0.0\nsamples = 3\nvalue = [0, 0, 0, 3]"] ;
237 -> 238 ;
239 [label="Total Bsmt SF <= 1.006\ngini = 0.414\nsamples = 54\nvalue = [3, 1, 40, 10]"] ;
237 -> 239 ;
240 [label="Overall Cond <= 0.837\ngini = 0.274\nsamples = 44\nvalue = [1, 0, 37, 6]"] ;
239 -> 240 ;
241 [label="gini = 0.111\nsamples = 34\nvalue = [0, 0, 32, 2]"] ;
240 -> 241 ;
242 [label="gini = 0.58\nsamples = 10\nvalue = [1, 0, 5, 4]"] ;
240 -> 242 ;
243 [label="Mas Vnr Area <= 0.178\ngini = 0.7\nsamples = 10\nvalue = [2, 1, 3, 4]"] ;
239 -> 243 ;
244 [label="gini = 0.571\nsamples = 7\nvalue = [2, 1, 0, 4]"] ;
243 -> 244 ;
245 [label="gini = 0.0\nsamples = 3\nvalue = [0, 0, 3, 0]"] ;
243 -> 245 ;
246 [label="Lot Area <= -0.298\ngini = 0.335\nsamples = 167\nvalue = [10, 1, 134, 22]"] ;
224 -> 246 ;
247 [label="Lot Frontage <= 0.284\ngini = 0.49\nsamples = 32\nvalue = [1, 0, 20, 11]"] ;
246 -> 247 ;
248 [label="Bsmt Unf SF <= -0.084\ngini = 0.426\nsamples = 28\nvalue = [1, 0, 20, 7]"] ;
247 -> 248 ;
249 [label="1st Flr SF <= 0.414\ngini = 0.18\nsamples = 20\nvalue = [0, 0, 18, 2]"] ;
248 -> 249 ;
250 [label="gini = 0.1\nsamples = 19\nvalue = [0, 0, 18, 1]"] ;
249 -> 250 ;
251 [label="gini = 0.0\nsamples = 1\nvalue = [0, 0, 0, 1]"] ;
249 -> 251 ;
252 [label="Total Bsmt SF <= 0.677\ngini = 0.531\nsamples = 8\nvalue = [1, 0, 2, 5]"] ;
248 -> 252 ;
253 [label="gini = 0.0\nsamples = 5\nvalue = [0, 0, 0, 5]"] ;
252 -> 253 ;
254 [label="gini = 0.444\nsamples = 3\nvalue = [1, 0, 2, 0]"] ;
252 -> 254 ;
255 [label="gini = 0.0\nsamples = 4\nvalue = [0, 0, 0, 4]"] ;
247 -> 255 ;
256 [label="Mas Vnr Area <= 1.868\ngini = 0.276\nsamples = 135\nvalue = [9, 1, 114, 11]"] ;
246 -> 256 ;
257 [label="Garage Area <= 0.248\ngini = 0.24\nsamples = 128\nvalue = [9, 1, 111, 7]"] ;
256 -> 257 ;
258 [label="Fireplaces <= -0.157\ngini = 0.138\nsamples = 95\nvalue = [1, 0, 88, 6]"] ;
257 -> 258 ;
259 [label="gini = 0.38\nsamples = 29\nvalue = [1, 0, 22, 6]"] ;
258 -> 259 ;
260 [label="gini = 0.0\nsamples = 66\nvalue = [0, 0, 66, 0]"] ;
258 -> 260 ;
261 [label="Lot Area <= 0.602\ngini = 0.454\nsamples = 33\nvalue = [8, 1, 23, 1]"] ;
257 -> 261 ;
262 [label="gini = 0.382\nsamples = 30\nvalue = [5, 1, 23, 1]"] ;
261 -> 262 ;
263 [label="gini = 0.0\nsamples = 3\nvalue = [3, 0, 0, 0]"] ;
261 -> 263 ;
264 [label="Mas Vnr Area <= 2.095\ngini = 0.49\nsamples = 7\nvalue = [0, 0, 3, 4]"] ;
256 -> 264 ;
265 [label="gini = 0.0\nsamples = 3\nvalue = [0, 0, 0, 3]"] ;
264 -> 265 ;
266 [label="Total Bsmt SF <= -0.071\ngini = 0.375\nsamples = 4\nvalue = [0, 0, 3, 1]"] ;
264 -> 266 ;
267 [label="gini = 0.0\nsamples = 1\nvalue = [0, 0, 0, 1]"] ;
266 -> 267 ;
268 [label="gini = 0.0\nsamples = 3\nvalue = [0, 0, 3, 0]"] ;
266 -> 268 ;
269 [label="Overall Cond <= 0.837\ngini = 0.588\nsamples = 34\nvalue = [18, 2, 12, 2]"] ;
223 -> 269 ;
270 [label="Bsmt Unf SF <= -0.566\ngini = 0.627\nsamples = 25\nvalue = [9, 2, 12, 2]"] ;
269 -> 270 ;
271 [label="BsmtFin SF 1 <= 0.257\ngini = 0.46\nsamples = 10\nvalue = [7, 2, 1, 0]"] ;
270 -> 271 ;
272 [label="Bsmt Unf SF <= -0.943\ngini = 0.444\nsamples = 3\nvalue = [0, 2, 1, 0]"] ;
271 -> 272 ;
273 [label="gini = 0.0\nsamples = 2\nvalue = [0, 2, 0, 0]"] ;
272 -> 273 ;
274 [label="gini = 0.0\nsamples = 1\nvalue = [0, 0, 1, 0]"] ;
272 -> 274 ;
275 [label="gini = 0.0\nsamples = 7\nvalue = [7, 0, 0, 0]"] ;
271 -> 275 ;
276 [label="Mas Vnr Area <= 1.158\ngini = 0.427\nsamples = 15\nvalue = [2, 0, 11, 2]"] ;
270 -> 276 ;
277 [label="Lot Area <= 3.828\ngini = 0.165\nsamples = 11\nvalue = [1, 0, 10, 0]"] ;
276 -> 277 ;
278 [label="gini = 0.0\nsamples = 10\nvalue = [0, 0, 10, 0]"] ;
277 -> 278 ;
279 [label="gini = 0.0\nsamples = 1\nvalue = [1, 0, 0, 0]"] ;
277 -> 279 ;
280 [label="TotRms AbvGrd <= 1.342\ngini = 0.625\nsamples = 4\nvalue = [1, 0, 1, 2]"] ;
276 -> 280 ;
281 [label="gini = 0.0\nsamples = 2\nvalue = [0, 0, 0, 2]"] ;
280 -> 281 ;
282 [label="Mas Vnr Area <= 1.813\ngini = 0.5\nsamples = 2\nvalue = [1, 0, 1, 0]"] ;
280 -> 282 ;
283 [label="gini = 0.0\nsamples = 1\nvalue = [1, 0, 0, 0]"] ;
282 -> 283 ;
284 [label="gini = 0.0\nsamples = 1\nvalue = [0, 0, 1, 0]"] ;
282 -> 284 ;
285 [label="gini = 0.0\nsamples = 9\nvalue = [9, 0, 0, 0]"] ;
269 -> 285 ;
286 [label="Gr Liv Area <= 0.027\ngini = 0.518\nsamples = 744\nvalue = [458, 8, 235, 43]"] ;
0 -> 286 [labeldistance=2.5, labelangle=-45, headlabel="False"] ;
287 [label="Garage Cars <= -0.358\ngini = 0.54\nsamples = 211\nvalue = [44, 5, 133, 29]"] ;
286 -> 287 ;
288 [label="1st Flr SF <= 0.15\ngini = 0.533\nsamples = 17\nvalue = [2, 3, 1, 11]"] ;
287 -> 288 ;
289 [label="Wood Deck SF <= 0.272\ngini = 0.337\nsamples = 14\nvalue = [0, 3, 0, 11]"] ;
288 -> 289 ;
290 [label="Gr Liv Area <= -1.104\ngini = 0.153\nsamples = 12\nvalue = [0, 1, 0, 11]"] ;
289 -> 290 ;
291 [label="BsmtFin SF 1 <= -0.348\ngini = 0.5\nsamples = 2\nvalue = [0, 1, 0, 1]"] ;
290 -> 291 ;
292 [label="gini = 0.0\nsamples = 1\nvalue = [0, 1, 0, 0]"] ;
291 -> 292 ;
293 [label="gini = 0.0\nsamples = 1\nvalue = [0, 0, 0, 1]"] ;
291 -> 293 ;
294 [label="gini = 0.0\nsamples = 10\nvalue = [0, 0, 0, 10]"] ;
290 -> 294 ;
295 [label="gini = 0.0\nsamples = 2\nvalue = [0, 2, 0, 0]"] ;
289 -> 295 ;
296 [label="Lot Frontage <= -0.823\ngini = 0.444\nsamples = 3\nvalue = [2, 0, 1, 0]"] ;
288 -> 296 ;
297 [label="gini = 0.0\nsamples = 2\nvalue = [2, 0, 0, 0]"] ;
296 -> 297 ;
298 [label="gini = 0.0\nsamples = 1\nvalue = [0, 0, 1, 0]"] ;
296 -> 298 ;
299 [label="1st Flr SF <= 0.321\ngini = 0.481\nsamples = 194\nvalue = [42, 2, 132, 18]"] ;
287 -> 299 ;
300 [label="1st Flr SF <= -1.463\ngini = 0.349\nsamples = 100\nvalue = [4, 1, 79, 16]"] ;
299 -> 300 ;
301 [label="gini = 0.0\nsamples = 5\nvalue = [0, 0, 0, 5]"] ;
300 -> 301 ;
302 [label="Gr Liv Area <= -0.707\ngini = 0.293\nsamples = 95\nvalue = [4, 1, 79, 11]"] ;
300 -> 302 ;
303 [label="Bsmt Unf SF <= -0.012\ngini = 0.569\nsamples = 12\nvalue = [0, 1, 6, 5]"] ;
302 -> 303 ;
304 [label="Wood Deck SF <= -0.349\ngini = 0.245\nsamples = 7\nvalue = [0, 1, 6, 0]"] ;
303 -> 304 ;
305 [label="gini = 0.0\nsamples = 1\nvalue = [0, 1, 0, 0]"] ;
304 -> 305 ;
306 [label="gini = 0.0\nsamples = 6\nvalue = [0, 0, 6, 0]"] ;
304 -> 306 ;
307 [label="gini = 0.0\nsamples = 5\nvalue = [0, 0, 0, 5]"] ;
303 -> 307 ;
308 [label="BsmtFin SF 2 <= 0.737\ngini = 0.219\nsamples = 83\nvalue = [4, 0, 73, 6]"] ;
302 -> 308 ;
309 [label="Lot Frontage <= 1.077\ngini = 0.184\nsamples = 80\nvalue = [2, 0, 72, 6]"] ;
308 -> 309 ;
310 [label="Open Porch SF <= 1.576\ngini = 0.163\nsamples = 79\nvalue = [1, 0, 72, 6]"] ;
309 -> 310 ;
311 [label="Lot Frontage <= 0.599\ngini = 0.123\nsamples = 76\nvalue = [0, 0, 71, 5]"] ;
310 -> 311 ;
312 [label="gini = 0.086\nsamples = 67\nvalue = [0, 0, 64, 3]"] ;
311 -> 312 ;
313 [label="gini = 0.346\nsamples = 9\nvalue = [0, 0, 7, 2]"] ;
311 -> 313 ;
314 [label="Overall Cond <= -0.065\ngini = 0.667\nsamples = 3\nvalue = [1, 0, 1, 1]"] ;
310 -> 314 ;
315 [label="gini = 0.5\nsamples = 2\nvalue = [1, 0, 1, 0]"] ;
314 -> 315 ;
316 [label="gini = 0.0\nsamples = 1\nvalue = [0, 0, 0, 1]"] ;
314 -> 316 ;
317 [label="gini = 0.0\nsamples = 1\nvalue = [1, 0, 0, 0]"] ;
309 -> 317 ;
318 [label="Gr Liv Area <= -0.53\ngini = 0.444\nsamples = 3\nvalue = [2, 0, 1, 0]"] ;
308 -> 318 ;
319 [label="gini = 0.0\nsamples = 1\nvalue = [0, 0, 1, 0]"] ;
318 -> 319 ;
320 [label="gini = 0.0\nsamples = 2\nvalue = [2, 0, 0, 0]"] ;
318 -> 320 ;
321 [label="Overall Qual <= 0.977\ngini = 0.518\nsamples = 94\nvalue = [38, 1, 53, 2]"] ;
299 -> 321 ;
322 [label="Bsmt Unf SF <= -0.941\ngini = 0.468\nsamples = 64\nvalue = [18, 1, 43, 2]"] ;
321 -> 322 ;
323 [label="Gr Liv Area <= -0.282\ngini = 0.37\nsamples = 9\nvalue = [7, 0, 1, 1]"] ;
322 -> 323 ;
324 [label="gini = 0.0\nsamples = 1\nvalue = [0, 0, 1, 0]"] ;
323 -> 324 ;
325 [label="Bsmt Full Bath <= 0.105\ngini = 0.219\nsamples = 8\nvalue = [7, 0, 0, 1]"] ;
323 -> 325 ;
326 [label="gini = 0.0\nsamples = 1\nvalue = [0, 0, 0, 1]"] ;
325 -> 326 ;
327 [label="gini = 0.0\nsamples = 7\nvalue = [7, 0, 0, 0]"] ;
325 -> 327 ;
328 [label="Mas Vnr Area <= 1.057\ngini = 0.376\nsamples = 55\nvalue = [11, 1, 42, 1]"] ;
322 -> 328 ;
329 [label="Garage Area <= 0.023\ngini = 0.342\nsamples = 53\nvalue = [9, 1, 42, 1]"] ;
328 -> 329 ;
330 [label="gini = 0.0\nsamples = 15\nvalue = [0, 0, 15, 0]"] ;
329 -> 330 ;
331 [label="Garage Area <= 0.037\ngini = 0.438\nsamples = 38\nvalue = [9, 1, 27, 1]"] ;
329 -> 331 ;
332 [label="gini = 0.0\nsamples = 1\nvalue = [0, 0, 0, 1]"] ;
331 -> 332 ;
333 [label="Total Bsmt SF <= 0.923\ngini = 0.408\nsamples = 37\nvalue = [9, 1, 27, 0]"] ;
331 -> 333 ;
334 [label="gini = 0.473\nsamples = 29\nvalue = [9, 1, 19, 0]"] ;
333 -> 334 ;
335 [label="gini = 0.0\nsamples = 8\nvalue = [0, 0, 8, 0]"] ;
333 -> 335 ;
336 [label="gini = 0.0\nsamples = 2\nvalue = [2, 0, 0, 0]"] ;
328 -> 336 ;
337 [label="1st Flr SF <= 0.885\ngini = 0.444\nsamples = 30\nvalue = [20, 0, 10, 0]"] ;
321 -> 337 ;
338 [label="Enclosed Porch <= 0.21\ngini = 0.384\nsamples = 27\nvalue = [20, 0, 7, 0]"] ;
337 -> 338 ;
339 [label="Bsmt Unf SF <= 1.709\ngini = 0.32\nsamples = 25\nvalue = [20, 0, 5, 0]"] ;
338 -> 339 ;
340 [label="BsmtFin SF 1 <= 1.311\ngini = 0.117\nsamples = 16\nvalue = [15, 0, 1, 0]"] ;
339 -> 340 ;
341 [label="gini = 0.0\nsamples = 15\nvalue = [15, 0, 0, 0]"] ;
340 -> 341 ;
342 [label="gini = 0.0\nsamples = 1\nvalue = [0, 0, 1, 0]"] ;
340 -> 342 ;
343 [label="Lot Frontage <= 0.464\ngini = 0.494\nsamples = 9\nvalue = [5, 0, 4, 0]"] ;
339 -> 343 ;
344 [label="Mas Vnr Area <= 1.368\ngini = 0.32\nsamples = 5\nvalue = [1, 0, 4, 0]"] ;
343 -> 344 ;
345 [label="gini = 0.0\nsamples = 4\nvalue = [0, 0, 4, 0]"] ;
344 -> 345 ;
346 [label="gini = 0.0\nsamples = 1\nvalue = [1, 0, 0, 0]"] ;
344 -> 346 ;
347 [label="gini = 0.0\nsamples = 4\nvalue = [4, 0, 0, 0]"] ;
343 -> 347 ;
348 [label="gini = 0.0\nsamples = 2\nvalue = [0, 0, 2, 0]"] ;
338 -> 348 ;
349 [label="gini = 0.0\nsamples = 3\nvalue = [0, 0, 3, 0]"] ;
337 -> 349 ;
350 [label="Total Bsmt SF <= -0.237\ngini = 0.359\nsamples = 533\nvalue = [414, 3, 102, 14]"] ;
286 -> 350 ;
351 [label="Gr Liv Area <= 1.015\ngini = 0.546\nsamples = 121\nvalue = [39, 2, 71, 9]"] ;
350 -> 351 ;
352 [label="Enclosed Porch <= 0.3\ngini = 0.473\nsamples = 94\nvalue = [19, 2, 65, 8]"] ;
351 -> 352 ;
353 [label="Garage Area <= 0.688\ngini = 0.362\nsamples = 79\nvalue = [16, 1, 61, 1]"] ;
352 -> 353 ;
354 [label="Bsmt Full Bath <= 0.105\ngini = 0.262\nsamples = 67\nvalue = [8, 1, 57, 1]"] ;
353 -> 354 ;
355 [label="2nd Flr SF <= 0.503\ngini = 0.165\nsamples = 56\nvalue = [4, 1, 51, 0]"] ;
354 -> 355 ;
356 [label="gini = 0.0\nsamples = 1\nvalue = [0, 1, 0, 0]"] ;
355 -> 356 ;
357 [label="Gr Liv Area <= 0.083\ngini = 0.135\nsamples = 55\nvalue = [4, 0, 51, 0]"] ;
355 -> 357 ;
358 [label="gini = 0.0\nsamples = 1\nvalue = [1, 0, 0, 0]"] ;
357 -> 358 ;
359 [label="Full Bath <= 1.668\ngini = 0.105\nsamples = 54\nvalue = [3, 0, 51, 0]"] ;
357 -> 359 ;
360 [label="gini = 0.074\nsamples = 52\nvalue = [2, 0, 50, 0]"] ;
359 -> 360 ;
361 [label="gini = 0.5\nsamples = 2\nvalue = [1, 0, 1, 0]"] ;
359 -> 361 ;
362 [label="Wood Deck SF <= -0.317\ngini = 0.562\nsamples = 11\nvalue = [4, 0, 6, 1]"] ;
354 -> 362 ;
363 [label="Open Porch SF <= 0.48\ngini = 0.32\nsamples = 5\nvalue = [4, 0, 1, 0]"] ;
362 -> 363 ;
364 [label="gini = 0.0\nsamples = 4\nvalue = [4, 0, 0, 0]"] ;
363 -> 364 ;
365 [label="gini = 0.0\nsamples = 1\nvalue = [0, 0, 1, 0]"] ;
363 -> 365 ;
366 [label="Garage Cars <= -0.358\ngini = 0.278\nsamples = 6\nvalue = [0, 0, 5, 1]"] ;
362 -> 366 ;
367 [label="gini = 0.0\nsamples = 1\nvalue = [0, 0, 0, 1]"] ;
366 -> 367 ;
368 [label="gini = 0.0\nsamples = 5\nvalue = [0, 0, 5, 0]"] ;
366 -> 368 ;
369 [label="Garage Area <= 1.566\ngini = 0.444\nsamples = 12\nvalue = [8, 0, 4, 0]"] ;
353 -> 369 ;
370 [label="Total Bsmt SF <= -0.258\ngini = 0.32\nsamples = 10\nvalue = [8, 0, 2, 0]"] ;
369 -> 370 ;
371 [label="gini = 0.0\nsamples = 8\nvalue = [8, 0, 0, 0]"] ;
370 -> 371 ;
372 [label="gini = 0.0\nsamples = 2\nvalue = [0, 0, 2, 0]"] ;
370 -> 372 ;
373 [label="gini = 0.0\nsamples = 2\nvalue = [0, 0, 2, 0]"] ;
369 -> 373 ;
374 [label="2nd Flr SF <= 1.02\ngini = 0.667\nsamples = 15\nvalue = [3, 1, 4, 7]"] ;
352 -> 374 ;
375 [label="Gr Liv Area <= 0.052\ngini = 0.245\nsamples = 7\nvalue = [1, 0, 0, 6]"] ;
374 -> 375 ;
376 [label="gini = 0.0\nsamples = 1\nvalue = [1, 0, 0, 0]"] ;
375 -> 376 ;
377 [label="gini = 0.0\nsamples = 6\nvalue = [0, 0, 0, 6]"] ;
375 -> 377 ;
378 [label="TotRms AbvGrd <= 0.693\ngini = 0.656\nsamples = 8\nvalue = [2, 1, 4, 1]"] ;
374 -> 378 ;
379 [label="gini = 0.0\nsamples = 4\nvalue = [0, 0, 4, 0]"] ;
378 -> 379 ;
380 [label="Mo Sold <= -0.436\ngini = 0.625\nsamples = 4\nvalue = [2, 1, 0, 1]"] ;
378 -> 380 ;
381 [label="Wood Deck SF <= -0.701\ngini = 0.5\nsamples = 2\nvalue = [0, 1, 0, 1]"] ;
380 -> 381 ;
382 [label="gini = 0.0\nsamples = 1\nvalue = [0, 1, 0, 0]"] ;
381 -> 382 ;
383 [label="gini = 0.0\nsamples = 1\nvalue = [0, 0, 0, 1]"] ;
381 -> 383 ;
384 [label="gini = 0.0\nsamples = 2\nvalue = [2, 0, 0, 0]"] ;
380 -> 384 ;
385 [label="1st Flr SF <= 0.153\ngini = 0.401\nsamples = 27\nvalue = [20, 0, 6, 1]"] ;
351 -> 385 ;
386 [label="gini = 0.0\nsamples = 14\nvalue = [14, 0, 0, 0]"] ;
385 -> 386 ;
387 [label="Lot Area <= 0.036\ngini = 0.568\nsamples = 13\nvalue = [6, 0, 6, 1]"] ;
385 -> 387 ;
388 [label="gini = 0.0\nsamples = 3\nvalue = [0, 0, 3, 0]"] ;
387 -> 388 ;
389 [label="Garage Area <= 0.451\ngini = 0.54\nsamples = 10\nvalue = [6, 0, 3, 1]"] ;
387 -> 389 ;
390 [label="gini = 0.0\nsamples = 6\nvalue = [6, 0, 0, 0]"] ;
389 -> 390 ;
391 [label="Total Bsmt SF <= -0.664\ngini = 0.375\nsamples = 4\nvalue = [0, 0, 3, 1]"] ;
389 -> 391 ;
392 [label="gini = 0.0\nsamples = 1\nvalue = [0, 0, 0, 1]"] ;
391 -> 392 ;
393 [label="gini = 0.0\nsamples = 3\nvalue = [0, 0, 3, 0]"] ;
391 -> 393 ;
394 [label="Garage Area <= 0.035\ngini = 0.166\nsamples = 412\nvalue = [375, 1, 31, 5]"] ;
350 -> 394 ;
395 [label="Fireplaces <= -0.157\ngini = 0.542\nsamples = 46\nvalue = [28, 1, 13, 4]"] ;
394 -> 395 ;
396 [label="Wood Deck SF <= 0.083\ngini = 0.627\nsamples = 13\nvalue = [2, 1, 7, 3]"] ;
395 -> 396 ;
397 [label="Garage Area <= -0.192\ngini = 0.694\nsamples = 7\nvalue = [2, 1, 1, 3]"] ;
396 -> 397 ;
398 [label="Garage Cars <= -0.358\ngini = 0.56\nsamples = 5\nvalue = [0, 1, 1, 3]"] ;
397 -> 398 ;
399 [label="Bedroom AbvGr <= 2.653\ngini = 0.5\nsamples = 2\nvalue = [0, 1, 1, 0]"] ;
398 -> 399 ;
400 [label="gini = 0.0\nsamples = 1\nvalue = [0, 0, 1, 0]"] ;
399 -> 400 ;
401 [label="gini = 0.0\nsamples = 1\nvalue = [0, 1, 0, 0]"] ;
399 -> 401 ;
402 [label="gini = 0.0\nsamples = 3\nvalue = [0, 0, 0, 3]"] ;
398 -> 402 ;
403 [label="gini = 0.0\nsamples = 2\nvalue = [2, 0, 0, 0]"] ;
397 -> 403 ;
404 [label="gini = 0.0\nsamples = 6\nvalue = [0, 0, 6, 0]"] ;
396 -> 404 ;
405 [label="Bsmt Full Bath <= 0.105\ngini = 0.345\nsamples = 33\nvalue = [26, 0, 6, 1]"] ;
395 -> 405 ;
406 [label="Total Bsmt SF <= -0.005\ngini = 0.485\nsamples = 20\nvalue = [13, 0, 6, 1]"] ;
405 -> 406 ;
407 [label="Lot Area <= -0.273\ngini = 0.198\nsamples = 9\nvalue = [8, 0, 1, 0]"] ;
406 -> 407 ;
408 [label="gini = 0.0\nsamples = 1\nvalue = [0, 0, 1, 0]"] ;
407 -> 408 ;
409 [label="gini = 0.0\nsamples = 8\nvalue = [8, 0, 0, 0]"] ;
407 -> 409 ;
410 [label="1st Flr SF <= 1.143\ngini = 0.579\nsamples = 11\nvalue = [5, 0, 5, 1]"] ;
406 -> 410 ;
411 [label="Lot Area <= 0.323\ngini = 0.5\nsamples = 10\nvalue = [5, 0, 5, 0]"] ;
410 -> 411 ;
412 [label="Overall Cond <= -0.065\ngini = 0.469\nsamples = 8\nvalue = [5, 0, 3, 0]"] ;
411 -> 412 ;
413 [label="gini = 0.0\nsamples = 4\nvalue = [4, 0, 0, 0]"] ;
412 -> 413 ;
414 [label="gini = 0.375\nsamples = 4\nvalue = [1, 0, 3, 0]"] ;
412 -> 414 ;
415 [label="gini = 0.0\nsamples = 2\nvalue = [0, 0, 2, 0]"] ;
411 -> 415 ;
416 [label="gini = 0.0\nsamples = 1\nvalue = [0, 0, 0, 1]"] ;
410 -> 416 ;
417 [label="gini = 0.0\nsamples = 13\nvalue = [13, 0, 0, 0]"] ;
405 -> 417 ;
418 [label="Gr Liv Area <= 0.137\ngini = 0.099\nsamples = 366\nvalue = [347, 0, 18, 1]"] ;
394 -> 418 ;
419 [label="BsmtFin SF 1 <= 0.436\ngini = 0.408\nsamples = 21\nvalue = [15, 0, 6, 0]"] ;
418 -> 419 ;
420 [label="TotRms AbvGrd <= 0.044\ngini = 0.444\nsamples = 9\nvalue = [3, 0, 6, 0]"] ;
419 -> 420 ;
421 [label="gini = 0.0\nsamples = 5\nvalue = [0, 0, 5, 0]"] ;
420 -> 421 ;
422 [label="Lot Area <= -0.057\ngini = 0.375\nsamples = 4\nvalue = [3, 0, 1, 0]"] ;
420 -> 422 ;
423 [label="gini = 0.0\nsamples = 1\nvalue = [0, 0, 1, 0]"] ;
422 -> 423 ;
424 [label="gini = 0.0\nsamples = 3\nvalue = [3, 0, 0, 0]"] ;
422 -> 424 ;
425 [label="gini = 0.0\nsamples = 12\nvalue = [12, 0, 0, 0]"] ;
419 -> 425 ;
426 [label="Misc Val <= 0.729\ngini = 0.073\nsamples = 345\nvalue = [332, 0, 12, 1]"] ;
418 -> 426 ;
427 [label="Overall Qual <= 0.977\ngini = 0.062\nsamples = 342\nvalue = [331, 0, 10, 1]"] ;
426 -> 427 ;
428 [label="Bsmt Unf SF <= 2.931\ngini = 0.194\nsamples = 92\nvalue = [82, 0, 10, 0]"] ;
427 -> 428 ;
429 [label="Open Porch SF <= -0.587\ngini = 0.162\nsamples = 90\nvalue = [82, 0, 8, 0]"] ;
428 -> 429 ;
430 [label="TotRms AbvGrd <= 0.693\ngini = 0.36\nsamples = 17\nvalue = [13, 0, 4, 0]"] ;
429 -> 430 ;
431 [label="gini = 0.444\nsamples = 6\nvalue = [2, 0, 4, 0]"] ;
430 -> 431 ;
432 [label="gini = 0.0\nsamples = 11\nvalue = [11, 0, 0, 0]"] ;
430 -> 432 ;
433 [label="Mas Vnr Area <= 3.164\ngini = 0.104\nsamples = 73\nvalue = [69, 0, 4, 0]"] ;
429 -> 433 ;
434 [label="gini = 0.08\nsamples = 72\nvalue = [69, 0, 3, 0]"] ;
433 -> 434 ;
435 [label="gini = 0.0\nsamples = 1\nvalue = [0, 0, 1, 0]"] ;
433 -> 435 ;
436 [label="gini = 0.0\nsamples = 2\nvalue = [0, 0, 2, 0]"] ;
428 -> 436 ;
437 [label="Bsmt Unf SF <= 2.82\ngini = 0.008\nsamples = 250\nvalue = [249, 0, 0, 1]"] ;
427 -> 437 ;
438 [label="gini = 0.0\nsamples = 238\nvalue = [238, 0, 0, 0]"] ;
437 -> 438 ;
439 [label="Gr Liv Area <= 0.612\ngini = 0.153\nsamples = 12\nvalue = [11, 0, 0, 1]"] ;
437 -> 439 ;
440 [label="gini = 0.0\nsamples = 1\nvalue = [0, 0, 0, 1]"] ;
439 -> 440 ;
441 [label="gini = 0.0\nsamples = 11\nvalue = [11, 0, 0, 0]"] ;
439 -> 441 ;
442 [label="BsmtFin SF 2 <= 1.091\ngini = 0.444\nsamples = 3\nvalue = [1, 0, 2, 0]"] ;
426 -> 442 ;
443 [label="gini = 0.0\nsamples = 2\nvalue = [0, 0, 2, 0]"] ;
442 -> 443 ;
444 [label="gini = 0.0\nsamples = 1\nvalue = [1, 0, 0, 0]"] ;
442 -> 444 ;
}